digraph Tree {
node [shape=box] ;
0 [label="V17 <= -2.865\ngini = 0.004\nsamples = 108108\nvalue = [170572, 312]\nclass = 0"] ;
1 [label="V19 <= 1.924\ngini = 0.395\nsamples = 171\nvalue = [80, 215]\nclass = 1"] ;
0 -> 1 [labeldistance=2.5, labelangle=45, headlabel="True"] ;
2 [label="V26 <= -0.254\ngini = 0.453\nsamples = 127\nvalue = [76, 143]\nclass = 1"] ;
1 -> 2 ;
3 [label="V25 <= 0.137\ngini = 0.474\nsamples = 52\nvalue = [54, 34]\nclass = 0"] ;
2 -> 3 ;
4 [label="V4 <= 0.109\ngini = 0.464\nsamples = 25\nvalue = [15, 26]\nclass = 1"] ;
3 -> 4 ;
5 [label="gini = 0.0\nsamples = 5\nvalue = [7, 0]\nclass = 0"] ;
4 -> 5 ;
6 [label="V14 <= -8.822\ngini = 0.36\nsamples = 20\nvalue = [8, 26]\nclass = 1"] ;
4 -> 6 ;
7 [label="gini = 0.0\nsamples = 4\nvalue = [6, 0]\nclass = 0"] ;
6 -> 7 ;
8 [label="Time <= 163242.0\ngini = 0.133\nsamples = 16\nvalue = [2, 26]\nclass = 1"] ;
6 -> 8 ;
9 [label="gini = 0.0\nsamples = 15\nvalue = [0, 26]\nclass = 1"] ;
8 -> 9 ;
10 [label="gini = 0.0\nsamples = 1\nvalue = [2, 0]\nclass = 0"] ;
8 -> 10 ;
11 [label="V19 <= -0.027\ngini = 0.282\nsamples = 27\nvalue = [39, 8]\nclass = 0"] ;
3 -> 11 ;
12 [label="V9 <= -1.035\ngini = 0.48\nsamples = 4\nvalue = [2, 3]\nclass = 1"] ;
11 -> 12 ;
13 [label="gini = 0.0\nsamples = 3\nvalue = [0, 3]\nclass = 1"] ;
12 -> 13 ;
14 [label="gini = 0.0\nsamples = 1\nvalue = [2, 0]\nclass = 0"] ;
12 -> 14 ;
15 [label="V15 <= -0.671\ngini = 0.21\nsamples = 23\nvalue = [37, 5]\nclass = 0"] ;
11 -> 15 ;
16 [label="V22 <= 0.851\ngini = 0.5\nsamples = 5\nvalue = [3, 3]\nclass = 0"] ;
15 -> 16 ;
17 [label="gini = 0.0\nsamples = 3\nvalue = [0, 3]\nclass = 1"] ;
16 -> 17 ;
18 [label="gini = 0.0\nsamples = 2\nvalue = [3, 0]\nclass = 0"] ;
16 -> 18 ;
19 [label="V5 <= -5.995\ngini = 0.105\nsamples = 18\nvalue = [34, 2]\nclass = 0"] ;
15 -> 19 ;
20 [label="V6 <= -3.296\ngini = 0.26\nsamples = 7\nvalue = [11, 2]\nclass = 0"] ;
19 -> 20 ;
21 [label="gini = 0.0\nsamples = 6\nvalue = [11, 0]\nclass = 0"] ;
20 -> 21 ;
22 [label="gini = 0.0\nsamples = 1\nvalue = [0, 2]\nclass = 1"] ;
20 -> 22 ;
23 [label="gini = 0.0\nsamples = 11\nvalue = [23, 0]\nclass = 0"] ;
19 -> 23 ;
24 [label="V12 <= -2.55\ngini = 0.279\nsamples = 75\nvalue = [22, 109]\nclass = 1"] ;
2 -> 24 ;
25 [label="V19 <= 1.679\ngini = 0.198\nsamples = 67\nvalue = [13, 104]\nclass = 1"] ;
24 -> 25 ;
26 [label="V2 <= 17.309\ngini = 0.138\nsamples = 62\nvalue = [8, 99]\nclass = 1"] ;
25 -> 26 ;
27 [label="V16 <= -1.916\ngini = 0.11\nsamples = 59\nvalue = [6, 97]\nclass = 1"] ;
26 -> 27 ;
28 [label="V10 <= -3.611\ngini = 0.059\nsamples = 57\nvalue = [3, 95]\nclass = 1"] ;
27 -> 28 ;
29 [label="gini = 0.0\nsamples = 45\nvalue = [0, 75]\nclass = 1"] ;
28 -> 29 ;
30 [label="V11 <= 1.32\ngini = 0.227\nsamples = 12\nvalue = [3, 20]\nclass = 1"] ;
28 -> 30 ;
31 [label="Amount <= 123.125\ngini = 0.48\nsamples = 3\nvalue = [3, 2]\nclass = 0"] ;
30 -> 31 ;
32 [label="gini = 0.0\nsamples = 2\nvalue = [3, 0]\nclass = 0"] ;
31 -> 32 ;
33 [label="gini = 0.0\nsamples = 1\nvalue = [0, 2]\nclass = 1"] ;
31 -> 33 ;
34 [label="gini = 0.0\nsamples = 9\nvalue = [0, 18]\nclass = 1"] ;
30 -> 34 ;
35 [label="V12 <= -6.473\ngini = 0.48\nsamples = 2\nvalue = [3, 2]\nclass = 0"] ;
27 -> 35 ;
36 [label="gini = 0.0\nsamples = 1\nvalue = [3, 0]\nclass = 0"] ;
35 -> 36 ;
37 [label="gini = 0.0\nsamples = 1\nvalue = [0, 2]\nclass = 1"] ;
35 -> 37 ;
38 [label="V1 <= -30.836\ngini = 0.5\nsamples = 3\nvalue = [2, 2]\nclass = 0"] ;
26 -> 38 ;
39 [label="gini = 0.0\nsamples = 2\nvalue = [2, 0]\nclass = 0"] ;
38 -> 39 ;
40 [label="gini = 0.0\nsamples = 1\nvalue = [0, 2]\nclass = 1"] ;
38 -> 40 ;
41 [label="V5 <= -3.263\ngini = 0.5\nsamples = 5\nvalue = [5, 5]\nclass = 0"] ;
25 -> 41 ;
42 [label="gini = 0.0\nsamples = 3\nvalue = [0, 5]\nclass = 1"] ;
41 -> 42 ;
43 [label="gini = 0.0\nsamples = 2\nvalue = [5, 0]\nclass = 0"] ;
41 -> 43 ;
44 [label="V4 <= 1.435\ngini = 0.459\nsamples = 8\nvalue = [9, 5]\nclass = 0"] ;
24 -> 44 ;
45 [label="gini = 0.0\nsamples = 4\nvalue = [7, 0]\nclass = 0"] ;
44 -> 45 ;
46 [label="Amount <= 1.0\ngini = 0.408\nsamples = 4\nvalue = [2, 5]\nclass = 1"] ;
44 -> 46 ;
47 [label="gini = 0.0\nsamples = 1\nvalue = [2, 0]\nclass = 0"] ;
46 -> 47 ;
48 [label="gini = 0.0\nsamples = 3\nvalue = [0, 5]\nclass = 1"] ;
46 -> 48 ;
49 [label="V12 <= -2.509\ngini = 0.1\nsamples = 44\nvalue = [4, 72]\nclass = 1"] ;
1 -> 49 ;
50 [label="V22 <= -0.307\ngini = 0.053\nsamples = 43\nvalue = [2, 72]\nclass = 1"] ;
49 -> 50 ;
51 [label="gini = 0.0\nsamples = 1\nvalue = [1, 0]\nclass = 0"] ;
50 -> 51 ;
52 [label="V1 <= -2.738\ngini = 0.027\nsamples = 42\nvalue = [1, 72]\nclass = 1"] ;
50 -> 52 ;
53 [label="gini = 0.0\nsamples = 27\nvalue = [0, 50]\nclass = 1"] ;
52 -> 53 ;
54 [label="V21 <= 1.438\ngini = 0.083\nsamples = 15\nvalue = [1, 22]\nclass = 1"] ;
52 -> 54 ;
55 [label="gini = 0.0\nsamples = 13\nvalue = [0, 21]\nclass = 1"] ;
54 -> 55 ;
56 [label="V17 <= -19.25\ngini = 0.5\nsamples = 2\nvalue = [1, 1]\nclass = 0"] ;
54 -> 56 ;
57 [label="gini = 0.0\nsamples = 1\nvalue = [0, 1]\nclass = 1"] ;
56 -> 57 ;
58 [label="gini = 0.0\nsamples = 1\nvalue = [1, 0]\nclass = 0"] ;
56 -> 58 ;
59 [label="gini = 0.0\nsamples = 1\nvalue = [2, 0]\nclass = 0"] ;
49 -> 59 ;
60 [label="V11 <= 5.426\ngini = 0.001\nsamples = 107937\nvalue = [170492, 97]\nclass = 0"] ;
0 -> 60 [labeldistance=2.5, labelangle=-45, headlabel="False"] ;
61 [label="V4 <= 5.373\ngini = 0.001\nsamples = 107931\nvalue = [170492, 87]\nclass = 0"] ;
60 -> 61 ;
62 [label="V12 <= -6.056\ngini = 0.001\nsamples = 107816\nvalue = [170328, 75]\nclass = 0"] ;
61 -> 62 ;
63 [label="gini = 0.0\nsamples = 1\nvalue = [0, 1]\nclass = 1"] ;
62 -> 63 ;
64 [label="V14 <= -5.948\ngini = 0.001\nsamples = 107815\nvalue = [170328, 74]\nclass = 0"] ;
62 -> 64 ;
65 [label="V10 <= -2.555\ngini = 0.227\nsamples = 42\nvalue = [60, 9]\nclass = 0"] ;
64 -> 65 ;
66 [label="gini = 0.0\nsamples = 6\nvalue = [0, 7]\nclass = 1"] ;
65 -> 66 ;
67 [label="V19 <= -3.189\ngini = 0.062\nsamples = 36\nvalue = [60, 2]\nclass = 0"] ;
65 -> 67 ;
68 [label="gini = 0.0\nsamples = 1\nvalue = [0, 1]\nclass = 1"] ;
67 -> 68 ;
69 [label="V21 <= 0.692\ngini = 0.032\nsamples = 35\nvalue = [60, 1]\nclass = 0"] ;
67 -> 69 ;
70 [label="gini = 0.0\nsamples = 34\nvalue = [60, 0]\nclass = 0"] ;
69 -> 70 ;
71 [label="gini = 0.0\nsamples = 1\nvalue = [0, 1]\nclass = 1"] ;
69 -> 71 ;
72 [label="V3 <= -2.333\ngini = 0.001\nsamples = 107773\nvalue = [170268, 65]\nclass = 0"] ;
64 -> 72 ;
73 [label="V28 <= -0.025\ngini = 0.004\nsamples = 5619\nvalue = [8949, 18]\nclass = 0"] ;
72 -> 73 ;
74 [label="gini = 0.0\nsamples = 3106\nvalue = [4987, 0]\nclass = 0"] ;
73 -> 74 ;
75 [label="V17 <= -1.731\ngini = 0.009\nsamples = 2513\nvalue = [3962, 18]\nclass = 0"] ;
73 -> 75 ;
76 [label="V21 <= -1.018\ngini = 0.401\nsamples = 11\nvalue = [13, 5]\nclass = 0"] ;
75 -> 76 ;
77 [label="gini = 0.0\nsamples = 8\nvalue = [13, 0]\nclass = 0"] ;
76 -> 77 ;
78 [label="gini = 0.0\nsamples = 3\nvalue = [0, 5]\nclass = 1"] ;
76 -> 78 ;
79 [label="V4 <= 4.224\ngini = 0.007\nsamples = 2502\nvalue = [3949, 13]\nclass = 0"] ;
75 -> 79 ;
80 [label="V10 <= -0.889\ngini = 0.005\nsamples = 2471\nvalue = [3906, 9]\nclass = 0"] ;
79 -> 80 ;
81 [label="V10 <= -0.889\ngini = 0.014\nsamples = 784\nvalue = [1228, 9]\nclass = 0"] ;
80 -> 81 ;
82 [label="V9 <= 0.996\ngini = 0.008\nsamples = 783\nvalue = [1228, 5]\nclass = 0"] ;
81 -> 82 ;
83 [label="V16 <= -0.387\ngini = 0.002\nsamples = 731\nvalue = [1155, 1]\nclass = 0"] ;
82 -> 83 ;
84 [label="Time <= 160665.0\ngini = 0.018\nsamples = 66\nvalue = [108, 1]\nclass = 0"] ;
83 -> 84 ;
85 [label="gini = 0.0\nsamples = 63\nvalue = [105, 0]\nclass = 0"] ;
84 -> 85 ;
86 [label="V25 <= 0.48\ngini = 0.375\nsamples = 3\nvalue = [3, 1]\nclass = 0"] ;
84 -> 86 ;
87 [label="gini = 0.0\nsamples = 2\nvalue = [3, 0]\nclass = 0"] ;
86 -> 87 ;
88 [label="gini = 0.0\nsamples = 1\nvalue = [0, 1]\nclass = 1"] ;
86 -> 88 ;
89 [label="gini = 0.0\nsamples = 665\nvalue = [1047, 0]\nclass = 0"] ;
83 -> 89 ;
90 [label="V17 <= 1.757\ngini = 0.098\nsamples = 52\nvalue = [73, 4]\nclass = 0"] ;
82 -> 90 ;
91 [label="V27 <= -0.164\ngini = 0.06\nsamples = 44\nvalue = [63, 2]\nclass = 0"] ;
90 -> 91 ;
92 [label="V27 <= -0.171\ngini = 0.137\nsamples = 19\nvalue = [25, 2]\nclass = 0"] ;
91 -> 92 ;
93 [label="gini = 0.074\nsamples = 18\nvalue = [25, 1]\nclass = 0"] ;
92 -> 93 ;
94 [label="gini = 0.0\nsamples = 1\nvalue = [0, 1]\nclass = 1"] ;
92 -> 94 ;
95 [label="gini = 0.0\nsamples = 25\nvalue = [38, 0]\nclass = 0"] ;
91 -> 95 ;
96 [label="Time <= 123048.5\ngini = 0.278\nsamples = 8\nvalue = [10, 2]\nclass = 0"] ;
90 -> 96 ;
97 [label="gini = 0.0\nsamples = 7\nvalue = [10, 0]\nclass = 0"] ;
96 -> 97 ;
98 [label="gini = 0.0\nsamples = 1\nvalue = [0, 2]\nclass = 1"] ;
96 -> 98 ;
99 [label="gini = 0.0\nsamples = 1\nvalue = [0, 4]\nclass = 1"] ;
81 -> 99 ;
100 [label="gini = 0.0\nsamples = 1687\nvalue = [2678, 0]\nclass = 0"] ;
80 -> 100 ;
101 [label="V1 <= 0.711\ngini = 0.156\nsamples = 31\nvalue = [43, 4]\nclass = 0"] ;
79 -> 101 ;
102 [label="gini = 0.0\nsamples = 24\nvalue = [36, 0]\nclass = 0"] ;
101 -> 102 ;
103 [label="V18 <= 1.2\ngini = 0.463\nsamples = 7\nvalue = [7, 4]\nclass = 0"] ;
101 -> 103 ;
104 [label="V24 <= 0.024\ngini = 0.32\nsamples = 3\nvalue = [1, 4]\nclass = 1"] ;
103 -> 104 ;
105 [label="gini = 0.0\nsamples = 2\nvalue = [0, 4]\nclass = 1"] ;
104 -> 105 ;
106 [label="gini = 0.0\nsamples = 1\nvalue = [1, 0]\nclass = 0"] ;
104 -> 106 ;
107 [label="gini = 0.0\nsamples = 4\nvalue = [6, 0]\nclass = 0"] ;
103 -> 107 ;
108 [label="V2 <= 0.407\ngini = 0.001\nsamples = 102154\nvalue = [161319, 47]\nclass = 0"] ;
72 -> 108 ;
109 [label="V17 <= -2.041\ngini = 0.0\nsamples = 65103\nvalue = [102799, 16]\nclass = 0"] ;
108 -> 109 ;
110 [label="V19 <= -0.608\ngini = 0.397\nsamples = 7\nvalue = [8, 3]\nclass = 0"] ;
109 -> 110 ;
111 [label="gini = 0.0\nsamples = 1\nvalue = [0, 3]\nclass = 1"] ;
110 -> 111 ;
112 [label="gini = 0.0\nsamples = 6\nvalue = [8, 0]\nclass = 0"] ;
110 -> 112 ;
113 [label="V23 <= 0.778\ngini = 0.0\nsamples = 65096\nvalue = [102791, 13]\nclass = 0"] ;
109 -> 113 ;
114 [label="V17 <= 0.753\ngini = 0.0\nsamples = 62958\nvalue = [99406, 6]\nclass = 0"] ;
113 -> 114 ;
115 [label="V26 <= 2.71\ngini = 0.0\nsamples = 56385\nvalue = [89046, 2]\nclass = 0"] ;
114 -> 115 ;
116 [label="V19 <= 1.226\ngini = 0.0\nsamples = 56376\nvalue = [89034, 1]\nclass = 0"] ;
115 -> 116 ;
117 [label="gini = 0.0\nsamples = 54252\nvalue = [85694, 0]\nclass = 0"] ;
116 -> 117 ;
118 [label="V27 <= -0.029\ngini = 0.001\nsamples = 2124\nvalue = [3340, 1]\nclass = 0"] ;
116 -> 118 ;
119 [label="V26 <= 1.243\ngini = 0.002\nsamples = 775\nvalue = [1234, 1]\nclass = 0"] ;
118 -> 119 ;
120 [label="gini = 0.0\nsamples = 753\nvalue = [1203, 0]\nclass = 0"] ;
119 -> 120 ;
121 [label="V12 <= 1.239\ngini = 0.061\nsamples = 22\nvalue = [31, 1]\nclass = 0"] ;
119 -> 121 ;
122 [label="gini = 0.0\nsamples = 21\nvalue = [31, 0]\nclass = 0"] ;
121 -> 122 ;
123 [label="gini = 0.0\nsamples = 1\nvalue = [0, 1]\nclass = 1"] ;
121 -> 123 ;
124 [label="gini = 0.0\nsamples = 1349\nvalue = [2106, 0]\nclass = 0"] ;
118 -> 124 ;
125 [label="V17 <= 0.275\ngini = 0.142\nsamples = 9\nvalue = [12, 1]\nclass = 0"] ;
115 -> 125 ;
126 [label="gini = 0.0\nsamples = 8\nvalue = [12, 0]\nclass = 0"] ;
125 -> 126 ;
127 [label="gini = 0.0\nsamples = 1\nvalue = [0, 1]\nclass = 1"] ;
125 -> 127 ;
128 [label="V15 <= -2.714\ngini = 0.001\nsamples = 6573\nvalue = [10360, 4]\nclass = 0"] ;
114 -> 128 ;
129 [label="V6 <= 2.515\ngini = 0.017\nsamples = 75\nvalue = [119, 1]\nclass = 0"] ;
128 -> 129 ;
130 [label="gini = 0.0\nsamples = 73\nvalue = [118, 0]\nclass = 0"] ;
129 -> 130 ;
131 [label="V18 <= -0.534\ngini = 0.5\nsamples = 2\nvalue = [1, 1]\nclass = 0"] ;
129 -> 131 ;
132 [label="gini = 0.0\nsamples = 1\nvalue = [0, 1]\nclass = 1"] ;
131 -> 132 ;
133 [label="gini = 0.0\nsamples = 1\nvalue = [1, 0]\nclass = 0"] ;
131 -> 133 ;
134 [label="V24 <= -0.436\ngini = 0.001\nsamples = 6498\nvalue = [10241, 3]\nclass = 0"] ;
128 -> 134 ;
135 [label="V18 <= -0.474\ngini = 0.002\nsamples = 1981\nvalue = [3079, 3]\nclass = 0"] ;
134 -> 135 ;
136 [label="gini = 0.0\nsamples = 1403\nvalue = [2190, 0]\nclass = 0"] ;
135 -> 136 ;
137 [label="V18 <= -0.473\ngini = 0.007\nsamples = 578\nvalue = [889, 3]\nclass = 0"] ;
135 -> 137 ;
138 [label="gini = 0.0\nsamples = 1\nvalue = [0, 2]\nclass = 1"] ;
137 -> 138 ;
139 [label="V10 <= -0.792\ngini = 0.002\nsamples = 577\nvalue = [889, 1]\nclass = 0"] ;
137 -> 139 ;
140 [label="gini = 0.008\nsamples = 168\nvalue = [245, 1]\nclass = 0"] ;
139 -> 140 ;
141 [label="gini = 0.0\nsamples = 409\nvalue = [644, 0]\nclass = 0"] ;
139 -> 141 ;
142 [label="gini = 0.0\nsamples = 4517\nvalue = [7162, 0]\nclass = 0"] ;
134 -> 142 ;
143 [label="V27 <= 1.204\ngini = 0.004\nsamples = 2138\nvalue = [3385, 7]\nclass = 0"] ;
113 -> 143 ;
144 [label="V13 <= -2.135\ngini = 0.003\nsamples = 2074\nvalue = [3290, 5]\nclass = 0"] ;
143 -> 144 ;
145 [label="V13 <= -2.143\ngini = 0.128\nsamples = 16\nvalue = [27, 2]\nclass = 0"] ;
144 -> 145 ;
146 [label="gini = 0.0\nsamples = 15\nvalue = [27, 0]\nclass = 0"] ;
145 -> 146 ;
147 [label="gini = 0.0\nsamples = 1\nvalue = [0, 2]\nclass = 1"] ;
145 -> 147 ;
148 [label="V19 <= 1.402\ngini = 0.002\nsamples = 2058\nvalue = [3263, 3]\nclass = 0"] ;
144 -> 148 ;
149 [label="gini = 0.0\nsamples = 1824\nvalue = [2909, 0]\nclass = 0"] ;
148 -> 149 ;
150 [label="Time <= 48909.0\ngini = 0.017\nsamples = 234\nvalue = [354, 3]\nclass = 0"] ;
148 -> 150 ;
151 [label="V2 <= -1.644\ngini = 0.078\nsamples = 56\nvalue = [71, 3]\nclass = 0"] ;
150 -> 151 ;
152 [label="gini = 0.0\nsamples = 37\nvalue = [53, 0]\nclass = 0"] ;
151 -> 152 ;
153 [label="V11 <= -1.054\ngini = 0.245\nsamples = 19\nvalue = [18, 3]\nclass = 0"] ;
151 -> 153 ;
154 [label="gini = 0.444\nsamples = 2\nvalue = [1, 2]\nclass = 1"] ;
153 -> 154 ;
155 [label="gini = 0.105\nsamples = 17\nvalue = [17, 1]\nclass = 0"] ;
153 -> 155 ;
156 [label="gini = 0.0\nsamples = 178\nvalue = [283, 0]\nclass = 0"] ;
150 -> 156 ;
157 [label="V28 <= -0.036\ngini = 0.04\nsamples = 64\nvalue = [95, 2]\nclass = 0"] ;
143 -> 157 ;
158 [label="gini = 0.0\nsamples = 63\nvalue = [95, 0]\nclass = 0"] ;
157 -> 158 ;
159 [label="gini = 0.0\nsamples = 1\nvalue = [0, 2]\nclass = 1"] ;
157 -> 159 ;
160 [label="V7 <= -1.234\ngini = 0.001\nsamples = 37051\nvalue = [58520, 31]\nclass = 0"] ;
108 -> 160 ;
161 [label="V22 <= 1.147\ngini = 0.007\nsamples = 1465\nvalue = [2300, 8]\nclass = 0"] ;
160 -> 161 ;
162 [label="V14 <= -3.177\ngini = 0.002\nsamples = 1267\nvalue = [2002, 2]\nclass = 0"] ;
161 -> 162 ;
163 [label="gini = 0.0\nsamples = 1\nvalue = [0, 2]\nclass = 1"] ;
162 -> 163 ;
164 [label="gini = 0.0\nsamples = 1266\nvalue = [2002, 0]\nclass = 0"] ;
162 -> 164 ;
165 [label="V7 <= -1.236\ngini = 0.039\nsamples = 198\nvalue = [298, 6]\nclass = 0"] ;
161 -> 165 ;
166 [label="V1 <= -0.686\ngini = 0.02\nsamples = 197\nvalue = [298, 3]\nclass = 0"] ;
165 -> 166 ;
167 [label="gini = 0.0\nsamples = 178\nvalue = [268, 0]\nclass = 0"] ;
166 -> 167 ;
168 [label="V27 <= 0.313\ngini = 0.165\nsamples = 19\nvalue = [30, 3]\nclass = 0"] ;
166 -> 168 ;
169 [label="V11 <= 1.274\ngini = 0.062\nsamples = 18\nvalue = [30, 1]\nclass = 0"] ;
168 -> 169 ;
170 [label="gini = 0.0\nsamples = 17\nvalue = [30, 0]\nclass = 0"] ;
169 -> 170 ;
171 [label="gini = 0.0\nsamples = 1\nvalue = [0, 1]\nclass = 1"] ;
169 -> 171 ;
172 [label="gini = 0.0\nsamples = 1\nvalue = [0, 2]\nclass = 1"] ;
168 -> 172 ;
173 [label="gini = 0.0\nsamples = 1\nvalue = [0, 3]\nclass = 1"] ;
165 -> 173 ;
174 [label="V19 <= -1.081\ngini = 0.001\nsamples = 35586\nvalue = [56220, 23]\nclass = 0"] ;
160 -> 174 ;
175 [label="V17 <= 1.324\ngini = 0.006\nsamples = 3059\nvalue = [4819, 14]\nclass = 0"] ;
174 -> 175 ;
176 [label="V19 <= -1.081\ngini = 0.004\nsamples = 2743\nvalue = [4304, 8]\nclass = 0"] ;
175 -> 176 ;
177 [label="V1 <= 0.048\ngini = 0.002\nsamples = 2742\nvalue = [4304, 5]\nclass = 0"] ;
176 -> 177 ;
178 [label="gini = 0.0\nsamples = 2128\nvalue = [3322, 0]\nclass = 0"] ;
177 -> 178 ;
179 [label="V7 <= 1.368\ngini = 0.01\nsamples = 614\nvalue = [982, 5]\nclass = 0"] ;
177 -> 179 ;
180 [label="V7 <= 1.075\ngini = 0.006\nsamples = 612\nvalue = [981, 3]\nclass = 0"] ;
179 -> 180 ;
181 [label="V3 <= -2.053\ngini = 0.002\nsamples = 603\nvalue = [969, 1]\nclass = 0"] ;
180 -> 181 ;
182 [label="gini = 0.133\nsamples = 7\nvalue = [13, 1]\nclass = 0"] ;
181 -> 182 ;
183 [label="gini = 0.0\nsamples = 596\nvalue = [956, 0]\nclass = 0"] ;
181 -> 183 ;
184 [label="V1 <= 0.051\ngini = 0.245\nsamples = 9\nvalue = [12, 2]\nclass = 0"] ;
180 -> 184 ;
185 [label="gini = 0.0\nsamples = 1\nvalue = [0, 2]\nclass = 1"] ;
184 -> 185 ;
186 [label="gini = 0.0\nsamples = 8\nvalue = [12, 0]\nclass = 0"] ;
184 -> 186 ;
187 [label="V9 <= -1.655\ngini = 0.444\nsamples = 2\nvalue = [1, 2]\nclass = 1"] ;
179 -> 187 ;
188 [label="gini = 0.0\nsamples = 1\nvalue = [1, 0]\nclass = 0"] ;
187 -> 188 ;
189 [label="gini = 0.0\nsamples = 1\nvalue = [0, 2]\nclass = 1"] ;
187 -> 189 ;
190 [label="gini = 0.0\nsamples = 1\nvalue = [0, 3]\nclass = 1"] ;
176 -> 190 ;
191 [label="V18 <= 1.575\ngini = 0.023\nsamples = 316\nvalue = [515, 6]\nclass = 0"] ;
175 -> 191 ;
192 [label="V16 <= 0.068\ngini = 0.012\nsamples = 299\nvalue = [486, 3]\nclass = 0"] ;
191 -> 192 ;
193 [label="gini = 0.0\nsamples = 179\nvalue = [289, 0]\nclass = 0"] ;
192 -> 193 ;
194 [label="V17 <= 1.326\ngini = 0.03\nsamples = 120\nvalue = [197, 3]\nclass = 0"] ;
192 -> 194 ;
195 [label="gini = 0.0\nsamples = 1\nvalue = [0, 2]\nclass = 1"] ;
194 -> 195 ;
196 [label="Amount <= 0.375\ngini = 0.01\nsamples = 119\nvalue = [197, 1]\nclass = 0"] ;
194 -> 196 ;
197 [label="gini = 0.0\nsamples = 1\nvalue = [0, 1]\nclass = 1"] ;
196 -> 197 ;
198 [label="gini = 0.0\nsamples = 118\nvalue = [197, 0]\nclass = 0"] ;
196 -> 198 ;
199 [label="V4 <= 4.1\ngini = 0.17\nsamples = 17\nvalue = [29, 3]\nclass = 0"] ;
191 -> 199 ;
200 [label="gini = 0.0\nsamples = 15\nvalue = [28, 0]\nclass = 0"] ;
199 -> 200 ;
201 [label="Amount <= 11.47\ngini = 0.375\nsamples = 2\nvalue = [1, 3]\nclass = 1"] ;
199 -> 201 ;
202 [label="gini = 0.0\nsamples = 1\nvalue = [0, 3]\nclass = 1"] ;
201 -> 202 ;
203 [label="gini = 0.0\nsamples = 1\nvalue = [1, 0]\nclass = 0"] ;
201 -> 203 ;
204 [label="Time <= 53081.0\ngini = 0.0\nsamples = 32527\nvalue = [51401, 9]\nclass = 0"] ;
174 -> 204 ;
205 [label="V17 <= 0.705\ngini = 0.001\nsamples = 7541\nvalue = [11940, 6]\nclass = 0"] ;
204 -> 205 ;
206 [label="V9 <= -0.08\ngini = 0.0\nsamples = 6332\nvalue = [10076, 1]\nclass = 0"] ;
205 -> 206 ;
207 [label="gini = 0.0\nsamples = 4109\nvalue = [6572, 0]\nclass = 0"] ;
206 -> 207 ;
208 [label="V15 <= 0.947\ngini = 0.001\nsamples = 2223\nvalue = [3504, 1]\nclass = 0"] ;
206 -> 208 ;
209 [label="gini = 0.0\nsamples = 1852\nvalue = [2916, 0]\nclass = 0"] ;
208 -> 209 ;
210 [label="V2 <= 0.418\ngini = 0.003\nsamples = 371\nvalue = [588, 1]\nclass = 0"] ;
208 -> 210 ;
211 [label="V28 <= 0.081\ngini = 0.375\nsamples = 3\nvalue = [3, 1]\nclass = 0"] ;
210 -> 211 ;
212 [label="gini = 0.0\nsamples = 1\nvalue = [0, 1]\nclass = 1"] ;
211 -> 212 ;
213 [label="gini = 0.0\nsamples = 2\nvalue = [3, 0]\nclass = 0"] ;
211 -> 213 ;
214 [label="gini = 0.0\nsamples = 368\nvalue = [585, 0]\nclass = 0"] ;
210 -> 214 ;
215 [label="V17 <= 0.706\ngini = 0.005\nsamples = 1209\nvalue = [1864, 5]\nclass = 0"] ;
205 -> 215 ;
216 [label="gini = 0.0\nsamples = 1\nvalue = [0, 2]\nclass = 1"] ;
215 -> 216 ;
217 [label="V2 <= 0.408\ngini = 0.003\nsamples = 1208\nvalue = [1864, 3]\nclass = 0"] ;
215 -> 217 ;
218 [label="gini = 0.0\nsamples = 1\nvalue = [0, 1]\nclass = 1"] ;
217 -> 218 ;
219 [label="V3 <= -0.49\ngini = 0.002\nsamples = 1207\nvalue = [1864, 2]\nclass = 0"] ;
217 -> 219 ;
220 [label="V26 <= 0.368\ngini = 0.012\nsamples = 230\nvalue = [334, 2]\nclass = 0"] ;
219 -> 220 ;
221 [label="gini = 0.0\nsamples = 184\nvalue = [270, 0]\nclass = 0"] ;
220 -> 221 ;
222 [label="gini = 0.059\nsamples = 46\nvalue = [64, 2]\nclass = 0"] ;
220 -> 222 ;
223 [label="gini = 0.0\nsamples = 977\nvalue = [1530, 0]\nclass = 0"] ;
219 -> 223 ;
224 [label="V16 <= 1.376\ngini = 0.0\nsamples = 24986\nvalue = [39461, 3]\nclass = 0"] ;
204 -> 224 ;
225 [label="V24 <= 0.601\ngini = 0.0\nsamples = 24726\nvalue = [39075, 1]\nclass = 0"] ;
224 -> 225 ;
226 [label="gini = 0.0\nsamples = 20773\nvalue = [32902, 0]\nclass = 0"] ;
225 -> 226 ;
227 [label="V25 <= -0.604\ngini = 0.0\nsamples = 3953\nvalue = [6173, 1]\nclass = 0"] ;
225 -> 227 ;
228 [label="V22 <= -0.697\ngini = 0.002\nsamples = 693\nvalue = [1064, 1]\nclass = 0"] ;
227 -> 228 ;
229 [label="V22 <= -0.707\ngini = 0.031\nsamples = 43\nvalue = [62, 1]\nclass = 0"] ;
228 -> 229 ;
230 [label="gini = 0.0\nsamples = 42\nvalue = [62, 0]\nclass = 0"] ;
229 -> 230 ;
231 [label="gini = 0.0\nsamples = 1\nvalue = [0, 1]\nclass = 1"] ;
229 -> 231 ;
232 [label="gini = 0.0\nsamples = 650\nvalue = [1002, 0]\nclass = 0"] ;
228 -> 232 ;
233 [label="gini = 0.0\nsamples = 3260\nvalue = [5109, 0]\nclass = 0"] ;
227 -> 233 ;
234 [label="Amount <= 128.775\ngini = 0.01\nsamples = 260\nvalue = [386, 2]\nclass = 0"] ;
224 -> 234 ;
235 [label="gini = 0.0\nsamples = 245\nvalue = [366, 0]\nclass = 0"] ;
234 -> 235 ;
236 [label="V3 <= 0.905\ngini = 0.165\nsamples = 15\nvalue = [20, 2]\nclass = 0"] ;
234 -> 236 ;
237 [label="gini = 0.0\nsamples = 11\nvalue = [15, 0]\nclass = 0"] ;
236 -> 237 ;
238 [label="V13 <= -0.327\ngini = 0.408\nsamples = 4\nvalue = [5, 2]\nclass = 0"] ;
236 -> 238 ;
239 [label="gini = 0.0\nsamples = 1\nvalue = [0, 2]\nclass = 1"] ;
238 -> 239 ;
240 [label="gini = 0.0\nsamples = 3\nvalue = [5, 0]\nclass = 0"] ;
238 -> 240 ;
241 [label="V12 <= -3.196\ngini = 0.127\nsamples = 115\nvalue = [164, 12]\nclass = 0"] ;
61 -> 241 ;
242 [label="V10 <= -1.38\ngini = 0.18\nsamples = 8\nvalue = [1, 9]\nclass = 1"] ;
241 -> 242 ;
243 [label="gini = 0.0\nsamples = 6\nvalue = [0, 7]\nclass = 1"] ;
242 -> 243 ;
244 [label="V21 <= -0.261\ngini = 0.444\nsamples = 2\nvalue = [1, 2]\nclass = 1"] ;
242 -> 244 ;
245 [label="gini = 0.0\nsamples = 1\nvalue = [0, 2]\nclass = 1"] ;
244 -> 245 ;
246 [label="gini = 0.0\nsamples = 1\nvalue = [1, 0]\nclass = 0"] ;
244 -> 246 ;
247 [label="V4 <= 5.396\ngini = 0.035\nsamples = 107\nvalue = [163, 3]\nclass = 0"] ;
241 -> 247 ;
248 [label="gini = 0.0\nsamples = 1\nvalue = [0, 1]\nclass = 1"] ;
247 -> 248 ;
249 [label="V12 <= -2.747\ngini = 0.024\nsamples = 106\nvalue = [163, 2]\nclass = 0"] ;
247 -> 249 ;
250 [label="V7 <= 1.023\ngini = 0.375\nsamples = 3\nvalue = [3, 1]\nclass = 0"] ;
249 -> 250 ;
251 [label="gini = 0.0\nsamples = 2\nvalue = [3, 0]\nclass = 0"] ;
250 -> 251 ;
252 [label="gini = 0.0\nsamples = 1\nvalue = [0, 1]\nclass = 1"] ;
250 -> 252 ;
253 [label="V16 <= -0.666\ngini = 0.012\nsamples = 103\nvalue = [160, 1]\nclass = 0"] ;
249 -> 253 ;
254 [label="V11 <= -1.421\ngini = 0.142\nsamples = 10\nvalue = [12, 1]\nclass = 0"] ;
253 -> 254 ;
255 [label="gini = 0.0\nsamples = 1\nvalue = [0, 1]\nclass = 1"] ;
254 -> 255 ;
256 [label="gini = 0.0\nsamples = 9\nvalue = [12, 0]\nclass = 0"] ;
254 -> 256 ;
257 [label="gini = 0.0\nsamples = 93\nvalue = [148, 0]\nclass = 0"] ;
253 -> 257 ;
258 [label="gini = 0.0\nsamples = 6\nvalue = [0, 10]\nclass = 1"] ;
60 -> 258 ;
}