digraph Tree {
node [shape=box] ;
0 [label="V22 <= -8.707\ngini = 0.003\nsamples = 108011\nvalue = [170592, 292]\nclass = 0"] ;
1 [label="V10 <= -6.98\ngini = 0.346\nsamples = 4\nvalue = [2, 7]\nclass = 1"] ;
0 -> 1 [labeldistance=2.5, labelangle=45, headlabel="True"] ;
2 [label="gini = 0.0\nsamples = 1\nvalue = [2, 0]\nclass = 0"] ;
1 -> 2 ;
3 [label="gini = 0.0\nsamples = 3\nvalue = [0, 7]\nclass = 1"] ;
1 -> 3 ;
4 [label="V10 <= -3.902\ngini = 0.003\nsamples = 108007\nvalue = [170590, 285]\nclass = 0"] ;
0 -> 4 [labeldistance=2.5, labelangle=-45, headlabel="False"] ;
5 [label="V11 <= 1.19\ngini = 0.449\nsamples = 173\nvalue = [91, 177]\nclass = 1"] ;
4 -> 5 ;
6 [label="gini = 0.0\nsamples = 37\nvalue = [47, 0]\nclass = 0"] ;
5 -> 6 ;
7 [label="V12 <= -2.189\ngini = 0.319\nsamples = 136\nvalue = [44, 177]\nclass = 1"] ;
5 -> 7 ;
8 [label="V28 <= 0.534\ngini = 0.286\nsamples = 132\nvalue = [37, 177]\nclass = 1"] ;
7 -> 8 ;
9 [label="V27 <= 0.875\ngini = 0.146\nsamples = 113\nvalue = [14, 162]\nclass = 1"] ;
8 -> 9 ;
10 [label="V4 <= -0.952\ngini = 0.031\nsamples = 76\nvalue = [2, 124]\nclass = 1"] ;
9 -> 10 ;
11 [label="gini = 0.0\nsamples = 1\nvalue = [2, 0]\nclass = 0"] ;
10 -> 11 ;
12 [label="gini = 0.0\nsamples = 75\nvalue = [0, 124]\nclass = 1"] ;
10 -> 12 ;
13 [label="V26 <= -0.276\ngini = 0.365\nsamples = 37\nvalue = [12, 38]\nclass = 1"] ;
9 -> 13 ;
14 [label="gini = 0.0\nsamples = 7\nvalue = [9, 0]\nclass = 0"] ;
13 -> 14 ;
15 [label="V25 <= 2.238\ngini = 0.136\nsamples = 30\nvalue = [3, 38]\nclass = 1"] ;
13 -> 15 ;
16 [label="V1 <= -2.057\ngini = 0.05\nsamples = 28\nvalue = [1, 38]\nclass = 1"] ;
15 -> 16 ;
17 [label="gini = 0.0\nsamples = 25\nvalue = [0, 36]\nclass = 1"] ;
16 -> 17 ;
18 [label="V12 <= -6.081\ngini = 0.444\nsamples = 3\nvalue = [1, 2]\nclass = 1"] ;
16 -> 18 ;
19 [label="gini = 0.0\nsamples = 2\nvalue = [0, 2]\nclass = 1"] ;
18 -> 19 ;
20 [label="gini = 0.0\nsamples = 1\nvalue = [1, 0]\nclass = 0"] ;
18 -> 20 ;
21 [label="gini = 0.0\nsamples = 2\nvalue = [2, 0]\nclass = 0"] ;
15 -> 21 ;
22 [label="V26 <= 0.091\ngini = 0.478\nsamples = 19\nvalue = [23, 15]\nclass = 0"] ;
8 -> 22 ;
23 [label="V26 <= -0.34\ngini = 0.204\nsamples = 12\nvalue = [23, 3]\nclass = 0"] ;
22 -> 23 ;
24 [label="gini = 0.0\nsamples = 2\nvalue = [0, 3]\nclass = 1"] ;
23 -> 24 ;
25 [label="gini = 0.0\nsamples = 10\nvalue = [23, 0]\nclass = 0"] ;
23 -> 25 ;
26 [label="gini = 0.0\nsamples = 7\nvalue = [0, 12]\nclass = 1"] ;
22 -> 26 ;
27 [label="gini = 0.0\nsamples = 4\nvalue = [7, 0]\nclass = 0"] ;
7 -> 27 ;
28 [label="V16 <= -4.327\ngini = 0.001\nsamples = 107834\nvalue = [170499, 108]\nclass = 0"] ;
4 -> 28 ;
29 [label="V15 <= 2.271\ngini = 0.266\nsamples = 12\nvalue = [3, 16]\nclass = 1"] ;
28 -> 29 ;
30 [label="gini = 0.0\nsamples = 10\nvalue = [0, 16]\nclass = 1"] ;
29 -> 30 ;
31 [label="gini = 0.0\nsamples = 2\nvalue = [3, 0]\nclass = 0"] ;
29 -> 31 ;
32 [label="V16 <= -4.155\ngini = 0.001\nsamples = 107822\nvalue = [170496, 92]\nclass = 0"] ;
28 -> 32 ;
33 [label="V11 <= 2.178\ngini = 0.42\nsamples = 6\nvalue = [7, 3]\nclass = 0"] ;
32 -> 33 ;
34 [label="gini = 0.0\nsamples = 5\nvalue = [7, 0]\nclass = 0"] ;
33 -> 34 ;
35 [label="gini = 0.0\nsamples = 1\nvalue = [0, 3]\nclass = 1"] ;
33 -> 35 ;
36 [label="V17 <= -3.047\ngini = 0.001\nsamples = 107816\nvalue = [170489, 89]\nclass = 0"] ;
32 -> 36 ;
37 [label="V12 <= -2.074\ngini = 0.488\nsamples = 35\nvalue = [30, 22]\nclass = 0"] ;
36 -> 37 ;
38 [label="V19 <= -0.113\ngini = 0.497\nsamples = 27\nvalue = [19, 22]\nclass = 1"] ;
37 -> 38 ;
39 [label="V6 <= 0.046\ngini = 0.245\nsamples = 8\nvalue = [2, 12]\nclass = 1"] ;
38 -> 39 ;
40 [label="gini = 0.0\nsamples = 5\nvalue = [0, 11]\nclass = 1"] ;
39 -> 40 ;
41 [label="V1 <= -3.377\ngini = 0.444\nsamples = 3\nvalue = [2, 1]\nclass = 0"] ;
39 -> 41 ;
42 [label="gini = 0.0\nsamples = 1\nvalue = [0, 1]\nclass = 1"] ;
41 -> 42 ;
43 [label="gini = 0.0\nsamples = 2\nvalue = [2, 0]\nclass = 0"] ;
41 -> 43 ;
44 [label="V14 <= -3.307\ngini = 0.466\nsamples = 19\nvalue = [17, 10]\nclass = 0"] ;
38 -> 44 ;
45 [label="V18 <= -1.993\ngini = 0.375\nsamples = 8\nvalue = [3, 9]\nclass = 1"] ;
44 -> 45 ;
46 [label="V1 <= -1.38\ngini = 0.375\nsamples = 3\nvalue = [3, 1]\nclass = 0"] ;
45 -> 46 ;
47 [label="gini = 0.0\nsamples = 1\nvalue = [0, 1]\nclass = 1"] ;
46 -> 47 ;
48 [label="gini = 0.0\nsamples = 2\nvalue = [3, 0]\nclass = 0"] ;
46 -> 48 ;
49 [label="gini = 0.0\nsamples = 5\nvalue = [0, 8]\nclass = 1"] ;
45 -> 49 ;
50 [label="V23 <= 1.416\ngini = 0.124\nsamples = 11\nvalue = [14, 1]\nclass = 0"] ;
44 -> 50 ;
51 [label="gini = 0.0\nsamples = 10\nvalue = [14, 0]\nclass = 0"] ;
50 -> 51 ;
52 [label="gini = 0.0\nsamples = 1\nvalue = [0, 1]\nclass = 1"] ;
50 -> 52 ;
53 [label="gini = 0.0\nsamples = 8\nvalue = [11, 0]\nclass = 0"] ;
37 -> 53 ;
54 [label="V14 <= -4.46\ngini = 0.001\nsamples = 107781\nvalue = [170459, 67]\nclass = 0"] ;
36 -> 54 ;
55 [label="V9 <= 0.946\ngini = 0.177\nsamples = 108\nvalue = [147, 16]\nclass = 0"] ;
54 -> 55 ;
56 [label="V10 <= -1.835\ngini = 0.422\nsamples = 35\nvalue = [37, 16]\nclass = 0"] ;
55 -> 56 ;
57 [label="V23 <= -0.482\ngini = 0.476\nsamples = 14\nvalue = [9, 14]\nclass = 1"] ;
56 -> 57 ;
58 [label="gini = 0.0\nsamples = 3\nvalue = [7, 0]\nclass = 0"] ;
57 -> 58 ;
59 [label="V2 <= 1.474\ngini = 0.219\nsamples = 11\nvalue = [2, 14]\nclass = 1"] ;
57 -> 59 ;
60 [label="gini = 0.0\nsamples = 4\nvalue = [0, 9]\nclass = 1"] ;
59 -> 60 ;
61 [label="V11 <= 1.085\ngini = 0.408\nsamples = 7\nvalue = [2, 5]\nclass = 1"] ;
59 -> 61 ;
62 [label="gini = 0.0\nsamples = 2\nvalue = [2, 0]\nclass = 0"] ;
61 -> 62 ;
63 [label="gini = 0.0\nsamples = 5\nvalue = [0, 5]\nclass = 1"] ;
61 -> 63 ;
64 [label="V19 <= 0.505\ngini = 0.124\nsamples = 21\nvalue = [28, 2]\nclass = 0"] ;
56 -> 64 ;
65 [label="gini = 0.0\nsamples = 19\nvalue = [27, 0]\nclass = 0"] ;
64 -> 65 ;
66 [label="V6 <= -0.088\ngini = 0.444\nsamples = 2\nvalue = [1, 2]\nclass = 1"] ;
64 -> 66 ;
67 [label="gini = 0.0\nsamples = 1\nvalue = [1, 0]\nclass = 0"] ;
66 -> 67 ;
68 [label="gini = 0.0\nsamples = 1\nvalue = [0, 2]\nclass = 1"] ;
66 -> 68 ;
69 [label="gini = 0.0\nsamples = 73\nvalue = [110, 0]\nclass = 0"] ;
55 -> 69 ;
70 [label="V16 <= 2.464\ngini = 0.001\nsamples = 107673\nvalue = [170312, 51]\nclass = 0"] ;
54 -> 70 ;
71 [label="V17 <= 1.143\ngini = 0.001\nsamples = 107556\nvalue = [170124, 48]\nclass = 0"] ;
70 -> 71 ;
72 [label="V14 <= -3.558\ngini = 0.0\nsamples = 100747\nvalue = [159338, 28]\nclass = 0"] ;
71 -> 72 ;
73 [label="V10 <= -1.22\ngini = 0.035\nsamples = 41\nvalue = [55, 1]\nclass = 0"] ;
72 -> 73 ;
74 [label="gini = 0.0\nsamples = 1\nvalue = [0, 1]\nclass = 1"] ;
73 -> 74 ;
75 [label="gini = 0.0\nsamples = 40\nvalue = [55, 0]\nclass = 0"] ;
73 -> 75 ;
76 [label="V20 <= 3.973\ngini = 0.0\nsamples = 100706\nvalue = [159283, 27]\nclass = 0"] ;
72 -> 76 ;
77 [label="V5 <= 9.866\ngini = 0.0\nsamples = 100488\nvalue = [158945, 25]\nclass = 0"] ;
76 -> 77 ;
78 [label="V7 <= 1.078\ngini = 0.0\nsamples = 100449\nvalue = [158879, 24]\nclass = 0"] ;
77 -> 78 ;
79 [label="V27 <= 1.771\ngini = 0.0\nsamples = 91489\nvalue = [144767, 15]\nclass = 0"] ;
78 -> 79 ;
80 [label="V19 <= -2.547\ngini = 0.0\nsamples = 91345\nvalue = [144543, 14]\nclass = 0"] ;
79 -> 80 ;
81 [label="V14 <= 1.476\ngini = 0.014\nsamples = 247\nvalue = [409, 3]\nclass = 0"] ;
80 -> 81 ;
82 [label="gini = 0.0\nsamples = 229\nvalue = [382, 0]\nclass = 0"] ;
81 -> 82 ;
83 [label="gini = 0.18\nsamples = 18\nvalue = [27, 3]\nclass = 0"] ;
81 -> 83 ;
84 [label="V19 <= -1.912\ngini = 0.0\nsamples = 91098\nvalue = [144134, 11]\nclass = 0"] ;
80 -> 84 ;
85 [label="gini = 0.002\nsamples = 797\nvalue = [1272, 1]\nclass = 0"] ;
84 -> 85 ;
86 [label="gini = 0.0\nsamples = 90301\nvalue = [142862, 10]\nclass = 0"] ;
84 -> 86 ;
87 [label="V3 <= -0.009\ngini = 0.009\nsamples = 144\nvalue = [224, 1]\nclass = 0"] ;
79 -> 87 ;
88 [label="gini = 0.0\nsamples = 129\nvalue = [203, 0]\nclass = 0"] ;
87 -> 88 ;
89 [label="V12 <= -0.625\ngini = 0.087\nsamples = 15\nvalue = [21, 1]\nclass = 0"] ;
87 -> 89 ;
90 [label="gini = 0.0\nsamples = 1\nvalue = [0, 1]\nclass = 1"] ;
89 -> 90 ;
91 [label="gini = 0.0\nsamples = 14\nvalue = [21, 0]\nclass = 0"] ;
89 -> 91 ;
92 [label="V20 <= -0.115\ngini = 0.001\nsamples = 8960\nvalue = [14112, 9]\nclass = 0"] ;
78 -> 92 ;
93 [label="V4 <= 2.619\ngini = 0.003\nsamples = 2739\nvalue = [4274, 7]\nclass = 0"] ;
92 -> 93 ;
94 [label="V16 <= 0.531\ngini = 0.001\nsamples = 2555\nvalue = [3983, 2]\nclass = 0"] ;
93 -> 94 ;
95 [label="gini = 0.0\nsamples = 2125\nvalue = [3308, 0]\nclass = 0"] ;
94 -> 95 ;
96 [label="gini = 0.006\nsamples = 430\nvalue = [675, 2]\nclass = 0"] ;
94 -> 96 ;
97 [label="V4 <= 2.621\ngini = 0.033\nsamples = 184\nvalue = [291, 5]\nclass = 0"] ;
93 -> 97 ;
98 [label="gini = 0.0\nsamples = 1\nvalue = [0, 2]\nclass = 1"] ;
97 -> 98 ;
99 [label="gini = 0.02\nsamples = 183\nvalue = [291, 3]\nclass = 0"] ;
97 -> 99 ;
100 [label="V26 <= -1.124\ngini = 0.0\nsamples = 6221\nvalue = [9838, 2]\nclass = 0"] ;
92 -> 100 ;
101 [label="V21 <= 0.615\ngini = 0.051\nsamples = 25\nvalue = [37, 1]\nclass = 0"] ;
100 -> 101 ;
102 [label="gini = 0.0\nsamples = 20\nvalue = [31, 0]\nclass = 0"] ;
101 -> 102 ;
103 [label="gini = 0.245\nsamples = 5\nvalue = [6, 1]\nclass = 0"] ;
101 -> 103 ;
104 [label="V13 <= 2.368\ngini = 0.0\nsamples = 6196\nvalue = [9801, 1]\nclass = 0"] ;
100 -> 104 ;
105 [label="gini = 0.0\nsamples = 6127\nvalue = [9695, 0]\nclass = 0"] ;
104 -> 105 ;
106 [label="gini = 0.019\nsamples = 69\nvalue = [106, 1]\nclass = 0"] ;
104 -> 106 ;
107 [label="V9 <= -1.063\ngini = 0.029\nsamples = 39\nvalue = [66, 1]\nclass = 0"] ;
77 -> 107 ;
108 [label="gini = 0.0\nsamples = 1\nvalue = [0, 1]\nclass = 1"] ;
107 -> 108 ;
109 [label="gini = 0.0\nsamples = 38\nvalue = [66, 0]\nclass = 0"] ;
107 -> 109 ;
110 [label="V24 <= 0.654\ngini = 0.012\nsamples = 218\nvalue = [338, 2]\nclass = 0"] ;
76 -> 110 ;
111 [label="gini = 0.0\nsamples = 182\nvalue = [287, 0]\nclass = 0"] ;
110 -> 111 ;
112 [label="V21 <= 1.271\ngini = 0.073\nsamples = 36\nvalue = [51, 2]\nclass = 0"] ;
110 -> 112 ;
113 [label="V21 <= 1.212\ngini = 0.278\nsamples = 8\nvalue = [10, 2]\nclass = 0"] ;
112 -> 113 ;
114 [label="gini = 0.0\nsamples = 7\nvalue = [10, 0]\nclass = 0"] ;
113 -> 114 ;
115 [label="gini = 0.0\nsamples = 1\nvalue = [0, 2]\nclass = 1"] ;
113 -> 115 ;
116 [label="gini = 0.0\nsamples = 28\nvalue = [41, 0]\nclass = 0"] ;
112 -> 116 ;
117 [label="V17 <= 1.143\ngini = 0.004\nsamples = 6809\nvalue = [10786, 20]\nclass = 0"] ;
71 -> 117 ;
118 [label="gini = 0.0\nsamples = 1\nvalue = [0, 4]\nclass = 1"] ;
117 -> 118 ;
119 [label="Amount <= 323.605\ngini = 0.003\nsamples = 6808\nvalue = [10786, 16]\nclass = 0"] ;
117 -> 119 ;
120 [label="V8 <= 0.117\ngini = 0.002\nsamples = 6470\nvalue = [10254, 10]\nclass = 0"] ;
119 -> 120 ;
121 [label="V8 <= 0.117\ngini = 0.004\nsamples = 3094\nvalue = [4961, 9]\nclass = 0"] ;
120 -> 121 ;
122 [label="V25 <= 0.005\ngini = 0.003\nsamples = 3093\nvalue = [4961, 8]\nclass = 0"] ;
121 -> 122 ;
123 [label="gini = 0.0\nsamples = 1322\nvalue = [2153, 0]\nclass = 0"] ;
122 -> 123 ;
124 [label="V4 <= 4.154\ngini = 0.006\nsamples = 1771\nvalue = [2808, 8]\nclass = 0"] ;
122 -> 124 ;
125 [label="V19 <= -1.096\ngini = 0.004\nsamples = 1749\nvalue = [2775, 5]\nclass = 0"] ;
124 -> 125 ;
126 [label="gini = 0.031\nsamples = 110\nvalue = [189, 3]\nclass = 0"] ;
125 -> 126 ;
127 [label="gini = 0.002\nsamples = 1639\nvalue = [2586, 2]\nclass = 0"] ;
125 -> 127 ;
128 [label="V8 <= 0.052\ngini = 0.153\nsamples = 22\nvalue = [33, 3]\nclass = 0"] ;
124 -> 128 ;
129 [label="gini = 0.061\nsamples = 20\nvalue = [31, 1]\nclass = 0"] ;
128 -> 129 ;
130 [label="gini = 0.5\nsamples = 2\nvalue = [2, 2]\nclass = 0"] ;
128 -> 130 ;
131 [label="gini = 0.0\nsamples = 1\nvalue = [0, 1]\nclass = 1"] ;
121 -> 131 ;
132 [label="V13 <= -1.93\ngini = 0.0\nsamples = 3376\nvalue = [5293, 1]\nclass = 0"] ;
120 -> 132 ;
133 [label="V25 <= 0.506\ngini = 0.012\nsamples = 105\nvalue = [169, 1]\nclass = 0"] ;
132 -> 133 ;
134 [label="gini = 0.0\nsamples = 96\nvalue = [154, 0]\nclass = 0"] ;
133 -> 134 ;
135 [label="V16 <= 0.818\ngini = 0.117\nsamples = 9\nvalue = [15, 1]\nclass = 0"] ;
133 -> 135 ;
136 [label="gini = 0.0\nsamples = 8\nvalue = [15, 0]\nclass = 0"] ;
135 -> 136 ;
137 [label="gini = 0.0\nsamples = 1\nvalue = [0, 1]\nclass = 1"] ;
135 -> 137 ;
138 [label="gini = 0.0\nsamples = 3271\nvalue = [5124, 0]\nclass = 0"] ;
132 -> 138 ;
139 [label="V19 <= -2.081\ngini = 0.022\nsamples = 338\nvalue = [532, 6]\nclass = 0"] ;
119 -> 139 ;
140 [label="V1 <= 0.671\ngini = 0.153\nsamples = 15\nvalue = [22, 2]\nclass = 0"] ;
139 -> 140 ;
141 [label="gini = 0.0\nsamples = 13\nvalue = [21, 0]\nclass = 0"] ;
140 -> 141 ;
142 [label="V26 <= -0.145\ngini = 0.444\nsamples = 2\nvalue = [1, 2]\nclass = 1"] ;
140 -> 142 ;
143 [label="gini = 0.0\nsamples = 1\nvalue = [0, 2]\nclass = 1"] ;
142 -> 143 ;
144 [label="gini = 0.0\nsamples = 1\nvalue = [1, 0]\nclass = 0"] ;
142 -> 144 ;
145 [label="V22 <= 1.408\ngini = 0.015\nsamples = 323\nvalue = [510, 4]\nclass = 0"] ;
139 -> 145 ;
146 [label="V14 <= -1.954\ngini = 0.008\nsamples = 316\nvalue = [501, 2]\nclass = 0"] ;
145 -> 146 ;
147 [label="V9 <= 0.799\ngini = 0.093\nsamples = 27\nvalue = [39, 2]\nclass = 0"] ;
146 -> 147 ;
148 [label="gini = 0.0\nsamples = 23\nvalue = [36, 0]\nclass = 0"] ;
147 -> 148 ;
149 [label="V11 <= 0.674\ngini = 0.48\nsamples = 4\nvalue = [3, 2]\nclass = 0"] ;
147 -> 149 ;
150 [label="gini = 0.0\nsamples = 2\nvalue = [0, 2]\nclass = 1"] ;
149 -> 150 ;
151 [label="gini = 0.0\nsamples = 2\nvalue = [3, 0]\nclass = 0"] ;
149 -> 151 ;
152 [label="gini = 0.0\nsamples = 289\nvalue = [462, 0]\nclass = 0"] ;
146 -> 152 ;
153 [label="V4 <= 1.572\ngini = 0.298\nsamples = 7\nvalue = [9, 2]\nclass = 0"] ;
145 -> 153 ;
154 [label="gini = 0.0\nsamples = 6\nvalue = [9, 0]\nclass = 0"] ;
153 -> 154 ;
155 [label="gini = 0.0\nsamples = 1\nvalue = [0, 2]\nclass = 1"] ;
153 -> 155 ;
156 [label="Amount <= 18.21\ngini = 0.031\nsamples = 117\nvalue = [188, 3]\nclass = 0"] ;
70 -> 156 ;
157 [label="V14 <= -2.58\ngini = 0.165\nsamples = 19\nvalue = [30, 3]\nclass = 0"] ;
156 -> 157 ;
158 [label="V2 <= 0.789\ngini = 0.444\nsamples = 4\nvalue = [6, 3]\nclass = 0"] ;
157 -> 158 ;
159 [label="gini = 0.0\nsamples = 1\nvalue = [0, 3]\nclass = 1"] ;
158 -> 159 ;
160 [label="gini = 0.0\nsamples = 3\nvalue = [6, 0]\nclass = 0"] ;
158 -> 160 ;
161 [label="gini = 0.0\nsamples = 15\nvalue = [24, 0]\nclass = 0"] ;
157 -> 161 ;
162 [label="gini = 0.0\nsamples = 98\nvalue = [158, 0]\nclass = 0"] ;
156 -> 162 ;
}